<?xml version="1.0"?>
<opencv_storage>
<cascade>
  <stageType>BOOST</stageType>
  <featureType>HAAR</featureType>
  <height>20</height>
  <width>20</width>
  <stageParams>
    <boostType>GAB</boostType>
    <minHitRate>9.9900001287460327e-01</minHitRate>
    <maxFalseAlarm>5.0000000745058060e-02</maxFalseAlarm>
    <weightTrimRate>9.4999999999999996e-01</weightTrimRate>
    <maxDepth>1</maxDepth>
    <maxWeakCount>100</maxWeakCount></stageParams>
  <featureParams>
    <maxCatCount>0</maxCatCount>
    <featSize>1</featSize>
    <mode>ALL</mode></featureParams>
  <stageNum>3</stageNum>
  <stages>
    <!-- stage 0 -->
    <_>
      <maxWeakCount>1</maxWeakCount>
      <stageThreshold>1.</stageThreshold>
      <weakClassifiers>
        <_>
          <internalNodes>
            0 -1 3 2.9586046934127808e-01</internalNodes>
          <leafValues>
            -1. 1.</leafValues></_></weakClassifiers></_>
    <!-- stage 1 -->
    <_>
      <maxWeakCount>3</maxWeakCount>
      <stageThreshold>-9.9268227815628052e-01</stageThreshold>
      <weakClassifiers>
        <_>
          <internalNodes>
            0 -1 0 -7.7224299311637878e-02</internalNodes>
          <leafValues>
            9.3750000000000000e-01 -9.8360657691955566e-01</leafValues></_>
        <_>
          <internalNodes>
            0 -1 1 -7.7971890568733215e-02</internalNodes>
          <leafValues>
            8.8030213117599487e-01 -9.7776097059249878e-01</leafValues></_>
        <_>
          <internalNodes>
            0 -1 2 -2.0032703876495361e-02</internalNodes>
          <leafValues>
            8.5207432508468628e-01 -9.5242124795913696e-01</leafValues></_></weakClassifiers></_>
    <!-- stage 2 -->
    <_>
      <maxWeakCount>3</maxWeakCount>
      <stageThreshold>5.3863191604614258e-01</stageThreshold>
      <weakClassifiers>
        <_>
          <internalNodes>
            0 -1 4 2.2218984365463257e-01</internalNodes>
          <leafValues>
            -8.6381322145462036e-01 9.1358023881912231e-01</leafValues></_>
        <_>
          <internalNodes>
            0 -1 6 6.2602804973721504e-03</internalNodes>
          <leafValues>
            -9.5631420612335205e-01 7.4463838338851929e-01</leafValues></_>
        <_>
          <internalNodes>
            0 -1 5 -4.7635614871978760e-02</internalNodes>
          <leafValues>
            6.5780675411224365e-01 -9.7787117958068848e-01</leafValues></_></weakClassifiers></_></stages>
  <features>
    <_>
      <rects>
        <_>
          0 2 20 5 -1.</_>
        <_>
          5 2 10 5 2.</_></rects>
      <tilted>0</tilted></_>
    <_>
      <rects>
        <_>
          0 13 20 5 -1.</_>
        <_>
          5 13 10 5 2.</_></rects>
      <tilted>0</tilted></_>
    <_>
      <rects>
        <_>
          1 15 10 3 -1.</_>
        <_>
          6 15 5 3 2.</_></rects>
      <tilted>0</tilted></_>
    <_>
      <rects>
        <_>
          2 6 15 9 -1.</_>
        <_>
          2 9 15 3 3.</_></rects>
      <tilted>0</tilted></_>
    <_>
      <rects>
        <_>
          4 6 12 8 -1.</_>
        <_>
          4 8 12 4 2.</_></rects>
      <tilted>0</tilted></_>
    <_>
      <rects>
        <_>
          13 6 2 12 -1.</_>
        <_>
          9 10 2 4 3.</_></rects>
      <tilted>1</tilted></_>
    <_>
      <rects>
        <_>
          13 15 4 4 -1.</_>
        <_>
          15 15 2 4 2.</_></rects>
      <tilted>0</tilted></_></features></cascade>
</opencv_storage>
