<?xml version="1.0"?>
<opencv_storage>
<cascade>
  <stageType>BOOST</stageType>
  <featureType>HAAR</featureType>
  <height>20</height>
  <width>20</width>
  <stageParams>
    <boostType>GAB</boostType>
    <minHitRate>9.9900001287460327e-01</minHitRate>
    <maxFalseAlarm>5.0000000745058060e-02</maxFalseAlarm>
    <weightTrimRate>9.4999999999999996e-01</weightTrimRate>
    <maxDepth>1</maxDepth>
    <maxWeakCount>100</maxWeakCount></stageParams>
  <featureParams>
    <maxCatCount>0</maxCatCount>
    <featSize>1</featSize>
    <mode>ALL</mode></featureParams>
  <stageNum>3</stageNum>
  <stages>
    <!-- stage 0 -->
    <_>
      <maxWeakCount>1</maxWeakCount>
      <stageThreshold>1.</stageThreshold>
      <weakClassifiers>
        <_>
          <internalNodes>
            0 -1 4 2.9908370971679688e-01</internalNodes>
          <leafValues>
            -1. 1.</leafValues></_></weakClassifiers></_>
    <!-- stage 1 -->
    <_>
      <maxWeakCount>4</maxWeakCount>
      <stageThreshold>-2.7120900154113770e-01</stageThreshold>
      <weakClassifiers>
        <_>
          <internalNodes>
            0 -1 0 -7.0634983479976654e-02</internalNodes>
          <leafValues>
            9.2263054847717285e-01 -9.8757761716842651e-01</leafValues></_>
        <_>
          <internalNodes>
            0 -1 3 -4.9283821135759354e-02</internalNodes>
          <leafValues>
            8.3263820409774780e-01 -9.8500579595565796e-01</leafValues></_>
        <_>
          <internalNodes>
            0 -1 1 -6.0441941022872925e-03</internalNodes>
          <leafValues>
            8.5611057281494141e-01 -9.0045583248138428e-01</leafValues></_>
        <_>
          <internalNodes>
            0 -1 2 -1.9187681376934052e-02</internalNodes>
          <leafValues>
            7.8418624401092529e-01 -9.7934490442276001e-01</leafValues></_></weakClassifiers></_>
    <!-- stage 2 -->
    <_>
      <maxWeakCount>3</maxWeakCount>
      <stageThreshold>6.0947823524475098e-01</stageThreshold>
      <weakClassifiers>
        <_>
          <internalNodes>
            0 -1 5 2.7903541922569275e-01</internalNodes>
          <leafValues>
            -9.9156117439270020e-01 8.9353615045547485e-01</leafValues></_>
        <_>
          <internalNodes>
            0 -1 6 -6.8379260483197868e-05</internalNodes>
          <leafValues>
            -1. 7.7698361873626709e-01</leafValues></_>
        <_>
          <internalNodes>
            0 -1 7 6.3235219568014145e-03</internalNodes>
          <leafValues>
            -9.2921954393386841e-01 8.2405585050582886e-01</leafValues></_></weakClassifiers></_></stages>
  <features>
    <_>
      <rects>
        <_>
          0 13 20 5 -1.</_>
        <_>
          5 13 10 5 2.</_></rects>
      <tilted>0</tilted></_>
    <_>
      <rects>
        <_>
          1 4 6 1 -1.</_>
        <_>
          4 4 3 1 2.</_></rects>
      <tilted>0</tilted></_>
    <_>
      <rects>
        <_>
          1 15 10 3 -1.</_>
        <_>
          6 15 5 3 2.</_></rects>
      <tilted>0</tilted></_>
    <_>
      <rects>
        <_>
          2 1 16 5 -1.</_>
        <_>
          6 1 8 5 2.</_></rects>
      <tilted>0</tilted></_>
    <_>
      <rects>
        <_>
          2 6 15 9 -1.</_>
        <_>
          2 9 15 3 3.</_></rects>
      <tilted>0</tilted></_>
    <_>
      <rects>
        <_>
          4 5 11 9 -1.</_>
        <_>
          4 8 11 3 3.</_></rects>
      <tilted>0</tilted></_>
    <_>
      <rects>
        <_>
          8 12 2 4 -1.</_>
        <_>
          8 14 2 2 2.</_></rects>
      <tilted>0</tilted></_>
    <_>
      <rects>
        <_>
          13 4 6 1 -1.</_>
        <_>
          16 4 3 1 2.</_></rects>
      <tilted>0</tilted></_></features></cascade>
</opencv_storage>
